digraph Tree {
node [shape=box, style="filled, rounded", color="black", fontname="helvetica"] ;
edge [fontname="helvetica"] ;
0 [label="petal width (cm) <= 0.8\ngini = 0.67\nsamples = 98\nvalue = [48, 52, 50]\nclass = versicolor", fillcolor="#fbfefc"] ;
1 [label="gini = 0.0\nsamples = 33\nvalue = [48, 0, 0]\nclass = setosa", fillcolor="#e58139"] ;
0 -> 1 [labeldistance=2.5, labelangle=45, headlabel="True"] ;
2 [label="petal width (cm) <= 1.55\ngini = 0.5\nsamples = 65\nvalue = [0, 52, 50]\nclass = versicolor", fillcolor="#f7fefa"] ;
0 -> 2 [labeldistance=2.5, labelangle=-45, headlabel="False"] ;
3 [label="sepal width (cm) <= 2.25\ngini = 0.11\nsamples = 32\nvalue = [0, 46, 3]\nclass = versicolor", fillcolor="#46e789"] ;
2 -> 3 ;
4 [label="sepal length (cm) <= 6.1\ngini = 0.44\nsamples = 3\nvalue = [0, 2, 1]\nclass = versicolor", fillcolor="#9cf2c0"] ;
3 -> 4 ;
5 [label="petal length (cm) <= 4.5\ngini = 0.5\nsamples = 2\nvalue = [0, 1, 1]\nclass = versicolor", fillcolor="#ffffff"] ;
4 -> 5 ;
6 [label="gini = 0.0\nsamples = 1\nvalue = [0, 1, 0]\nclass = versicolor", fillcolor="#39e581"] ;
5 -> 6 ;
7 [label="gini = 0.0\nsamples = 1\nvalue = [0, 0, 1]\nclass = virginica", fillcolor="#8139e5"] ;
5 -> 7 ;
8 [label="gini = 0.0\nsamples = 1\nvalue = [0, 1, 0]\nclass = versicolor", fillcolor="#39e581"] ;
4 -> 8 ;
9 [label="sepal width (cm) <= 2.85\ngini = 0.08\nsamples = 29\nvalue = [0, 44, 2]\nclass = versicolor", fillcolor="#42e687"] ;
3 -> 9 ;
10 [label="petal length (cm) <= 5.0\ngini = 0.17\nsamples = 15\nvalue = [0, 20, 2]\nclass = versicolor", fillcolor="#4de88e"] ;
9 -> 10 ;
11 [label="gini = 0.0\nsamples = 13\nvalue = [0, 20, 0]\nclass = versicolor", fillcolor="#39e581"] ;
10 -> 11 ;
12 [label="gini = 0.0\nsamples = 2\nvalue = [0, 0, 2]\nclass = virginica", fillcolor="#8139e5"] ;
10 -> 12 ;
13 [label="gini = 0.0\nsamples = 14\nvalue = [0, 24, 0]\nclass = versicolor", fillcolor="#39e581"] ;
9 -> 13 ;
14 [label="sepal length (cm) <= 6.05\ngini = 0.2\nsamples = 33\nvalue = [0, 6, 47]\nclass = virginica", fillcolor="#9152e8"] ;
2 -> 14 ;
15 [label="sepal width (cm) <= 3.1\ngini = 0.46\nsamples = 8\nvalue = [0, 5, 9]\nclass = virginica", fillcolor="#c7a7f3"] ;
14 -> 15 ;
16 [label="sepal length (cm) <= 5.95\ngini = 0.38\nsamples = 7\nvalue = [0, 3, 9]\nclass = virginica", fillcolor="#ab7bee"] ;
15 -> 16 ;
17 [label="gini = 0.0\nsamples = 5\nvalue = [0, 0, 8]\nclass = virginica", fillcolor="#8139e5"] ;
16 -> 17 ;
18 [label="sepal width (cm) <= 2.85\ngini = 0.38\nsamples = 2\nvalue = [0, 3, 1]\nclass = versicolor", fillcolor="#7beeab"] ;
16 -> 18 ;
19 [label="gini = 0.0\nsamples = 1\nvalue = [0, 3, 0]\nclass = versicolor", fillcolor="#39e581"] ;
18 -> 19 ;
20 [label="gini = 0.0\nsamples = 1\nvalue = [0, 0, 1]\nclass = virginica", fillcolor="#8139e5"] ;
18 -> 20 ;
21 [label="gini = 0.0\nsamples = 1\nvalue = [0, 2, 0]\nclass = versicolor", fillcolor="#39e581"] ;
15 -> 21 ;
22 [label="petal width (cm) <= 1.75\ngini = 0.05\nsamples = 25\nvalue = [0, 1, 38]\nclass = virginica", fillcolor="#843ee6"] ;
14 -> 22 ;
23 [label="petal length (cm) <= 5.4\ngini = 0.38\nsamples = 2\nvalue = [0, 1, 3]\nclass = virginica", fillcolor="#ab7bee"] ;
22 -> 23 ;
24 [label="gini = 0.0\nsamples = 1\nvalue = [0, 1, 0]\nclass = versicolor", fillcolor="#39e581"] ;
23 -> 24 ;
25 [label="gini = 0.0\nsamples = 1\nvalue = [0, 0, 3]\nclass = virginica", fillcolor="#8139e5"] ;
23 -> 25 ;
26 [label="gini = 0.0\nsamples = 23\nvalue = [0, 0, 35]\nclass = virginica", fillcolor="#8139e5"] ;
22 -> 26 ;
}