digraph Tree {
node [shape=box, style="filled, rounded", color="black", fontname="helvetica"] ;
edge [fontname="helvetica"] ;
0 [label="petal width (cm) <= 0.75\ngini = 0.65\nsamples = 92\nvalue = [62, 35, 53]\nclass = setosa", fillcolor="#fdf3ed"] ;
1 [label="gini = 0.0\nsamples = 33\nvalue = [62, 0, 0]\nclass = setosa", fillcolor="#e58139"] ;
0 -> 1 [labeldistance=2.5, labelangle=45, headlabel="True"] ;
2 [label="petal length (cm) <= 4.75\ngini = 0.48\nsamples = 59\nvalue = [0, 35, 53]\nclass = virginica", fillcolor="#d4bcf6"] ;
0 -> 2 [labeldistance=2.5, labelangle=-45, headlabel="False"] ;
3 [label="sepal length (cm) <= 5.0\ngini = 0.06\nsamples = 22\nvalue = [0, 31, 1]\nclass = versicolor", fillcolor="#3fe685"] ;
2 -> 3 ;
4 [label="petal width (cm) <= 1.35\ngini = 0.5\nsamples = 2\nvalue = [0, 1, 1]\nclass = versicolor", fillcolor="#ffffff"] ;
3 -> 4 ;
5 [label="gini = 0.0\nsamples = 1\nvalue = [0, 1, 0]\nclass = versicolor", fillcolor="#39e581"] ;
4 -> 5 ;
6 [label="gini = 0.0\nsamples = 1\nvalue = [0, 0, 1]\nclass = virginica", fillcolor="#8139e5"] ;
4 -> 6 ;
7 [label="gini = 0.0\nsamples = 20\nvalue = [0, 30, 0]\nclass = versicolor", fillcolor="#39e581"] ;
3 -> 7 ;
8 [label="petal length (cm) <= 5.15\ngini = 0.13\nsamples = 37\nvalue = [0, 4, 52]\nclass = virginica", fillcolor="#8b48e7"] ;
2 -> 8 ;
9 [label="petal width (cm) <= 1.75\ngini = 0.3\nsamples = 15\nvalue = [0, 4, 18]\nclass = virginica", fillcolor="#9d65eb"] ;
8 -> 9 ;
10 [label="sepal width (cm) <= 2.75\ngini = 0.48\nsamples = 3\nvalue = [0, 3, 2]\nclass = versicolor", fillcolor="#bdf6d5"] ;
9 -> 10 ;
11 [label="gini = 0.0\nsamples = 1\nvalue = [0, 2, 0]\nclass = versicolor", fillcolor="#39e581"] ;
10 -> 11 ;
12 [label="sepal width (cm) <= 2.9\ngini = 0.44\nsamples = 2\nvalue = [0, 1, 2]\nclass = virginica", fillcolor="#c09cf2"] ;
10 -> 12 ;
13 [label="gini = 0.0\nsamples = 1\nvalue = [0, 0, 2]\nclass = virginica", fillcolor="#8139e5"] ;
12 -> 13 ;
14 [label="gini = 0.0\nsamples = 1\nvalue = [0, 1, 0]\nclass = versicolor", fillcolor="#39e581"] ;
12 -> 14 ;
15 [label="sepal width (cm) <= 3.15\ngini = 0.11\nsamples = 12\nvalue = [0, 1, 16]\nclass = virginica", fillcolor="#8945e7"] ;
9 -> 15 ;
16 [label="gini = 0.0\nsamples = 10\nvalue = [0, 0, 15]\nclass = virginica", fillcolor="#8139e5"] ;
15 -> 16 ;
17 [label="petal length (cm) <= 4.95\ngini = 0.5\nsamples = 2\nvalue = [0, 1, 1]\nclass = versicolor", fillcolor="#ffffff"] ;
15 -> 17 ;
18 [label="gini = 0.0\nsamples = 1\nvalue = [0, 1, 0]\nclass = versicolor", fillcolor="#39e581"] ;
17 -> 18 ;
19 [label="gini = 0.0\nsamples = 1\nvalue = [0, 0, 1]\nclass = virginica", fillcolor="#8139e5"] ;
17 -> 19 ;
20 [label="gini = 0.0\nsamples = 22\nvalue = [0, 0, 34]\nclass = virginica", fillcolor="#8139e5"] ;
8 -> 20 ;
}